{"levels":[{"inputs":[0.7253333333332603,0.36360389693210726,0.55,0.6464466094067263,0.17616666666689984,0.36360389693210726,0.55,0.6464466094067263,0.7253333333332603],"outputs":[0,1,1,1,1,1,0,0],"biases":[0.1973221209168586,-0.04374649088881505,-0.46754681558297934,-0.11710240346340042,-0.21201495607203658,-0.4775210657134852,0.15786737474650214,0.47093438253077546],"weights":[[-0.22136618688075602,0.4342309694123311,0.24050820506271775,0.4975972654273213,0.44410737477776885,-0.14552564629705567,0.4749647776676659,-0.12730889083197283],[0.1372005838031101,0.567285236960498,-0.008488765331646969,-0.6027419870105369,-0.6056268876426698,0.39178951879407165,-0.017908783542209865,-0.7932196270959907],[-0.4033343144578502,0.3524635610667535,-0.22048121359814532,0.05695652730396043,-0.010710979411947624,0.44485506403870895,-0.1477859603068018,0.5065168052307749],[-0.24965753735637738,-0.3891157536315639,-0.036798487847374176,0.13886300821165382,-0.6779434664782922,-0.17056523726632478,0.06272545303559918,-0.28064943631114914],[0.5332386835336484,0.15102313661407815,-0.1329721710688538,0.3841886943021789,-0.15548572477703676,0.2952974197028312,-0.3499030930960651,-0.08126159149509422],[0.48415766808372707,-0.44070687435791406,0.07873389577285483,0.2925170039705236,-0.029563813533321326,-0.1020651943755777,0.06729342511770633,-0.12355306948348066],[-0.27661891056137333,0.5559240458902586,-0.14735501876248103,0.24471195520941322,-0.3284896219240566,-0.16505897300154587,-0.46789331446924787,0.30312044162561624],[-0.08912110792442701,-0.035588166700304874,0.07194433656407473,-0.15610516701351185,0.07246736698542611,0.47541977929584434,-0.1504097809680224,-0.3230079111035193],[0.24426507758617177,0.48093253758223464,-0.44583419304579336,0.31001828607408993,0.41828926111048054,0.44739909071290773,0.07179253305997721,-0.2900101527137231]]},{"inputs":[0,1,1,1,1,1,0,0],"outputs":[1,0,1,0,1,0],"biases":[0.10223599116583482,-0.1408963891196307,-0.10640127035346222,-0.09160077532189381,-0.011853659827047364,0.5818810180503681],"weights":[[-0.20574190296199157,0.29793172053221373,-0.3859247503984919,0.19572326916689925,-0.04480158516200494,-0.700421747088182],[0.6718069829401938,-0.03299137361455251,0.3468226309428491,-0.08749162261884759,-0.03536004713905369,0.3761608444150857],[-0.12048692611410941,-0.11407882899557331,0.5758787092656636,-0.4191399834559227,0.18829304088630866,-0.18082772223614335],[-0.0076747423309185825,-0.47947325960577286,0.517195664479205,0.1912797079232097,-0.21144824596192097,0.03758265400767269],[-0.2733903410975037,-0.10315438513126673,-0.1651787016346547,0.004640208475062135,0.21417545570732605,0.00580007441684402],[0.0009578645110753237,0.18998258255839925,0.5020093359827557,-0.09747242270020867,-0.07901680637709815,0.08065602557301021],[-0.00013524736895847989,0.36128971000078314,0.274801707914795,0.27378404915522414,-0.4947277775630989,-0.18707337327040435],[0.006415695933041601,-0.10436175013846372,0.06878369173124883,0.3408953254004372,0.07001227629204085,0.16253296774909343]]},{"inputs":[1,0,1,0,1,0],"outputs":[1,1,1,0],"biases":[-0.19213867951690494,-0.09852069354879245,-0.25059598470653005,0.1767407024953564],"weights":[[-0.1958987184341116,0.28202499987518004,0.1001544834986891,-0.1424591741237597],[0.19055949869013084,-0.25457742158537017,0.11792499346940707,0.10462482463038542],[-0.15537985444124092,-0.07278267939528632,0.05360638404710272,0.24923419359359877],[-0.29255124742149213,0.21155248379840358,-0.10391463851983423,-0.03894405348297624],[0.5100623786053005,0.02125155427324399,0.06492160909080835,-0.3732541659109111],[-0.014734297294702103,-0.44284550654821014,-0.08995970898644462,-0.07364901446614011]]}]}

40